51 20
-1.077364
0.844158
-1.077557
-0.277919
0.251220
0.122403
-0.801346
0.449662
0.871047
0.642847
0.099221
0.481146
0.729993
0.369313
-0.688443
0.992619
0.400682
0.475492
1.257665
0.943813
-0.419970
0.403207
0.880196
-0.029328
-0.251029
0.848112
0.229663
-1.341107
-0.447583
0.168232
0.322058
0.442184
0.375983
-0.525301
-0.626516
0.941774
0.695211
-0.252507
-0.152493
0.358928
-0.740672
0.741114
0.426361
0.779157
0.065289
-0.792790
-0.360542
-0.982546
-0.411420
0.527923
0.714471
0.605958
0.284860
0.602284
-0.260436
0.096027
0.249324
-0.322434
0.869648
-0.367534
0.207050
0.124934
-0.186304
-0.949272
0.727225
0.308121
-0.298936
-0.805081
-0.572151
-0.645424
-0.223037
-0.599400
0.242739
0.019223
0.457340
0.201723
0.190969
0.245077
0.127138
0.146455
0.181156
-0.352046
-0.126974
1.004698
0.452687
0.612320
0.978262
0.252226
1.027317
0.770909
0.791544
-0.394382
-0.345112
-0.277478
0.781156
-0.780056
0.076113
-0.198333
-0.578281
-0.022938
-0.059865
-0.604997
-0.817427
0.116555
0.920363
0.708853
0.204770
-0.361906
-0.694916
0.292320
0.252382
0.619487
-0.305942
-0.946758
0.197319
-0.251488
0.723344
-0.133693
-0.676614
-0.884676
-0.736013
-0.200681
1.050997
-0.302769
0.005028
0.781426
0.236380
-1.158887
-1.140191
1.032285
-0.192158
-0.409461
-0.558152
-1.404544
0.000984
1.344865
-0.379357
-0.259614
-0.666084
0.768345
1.587305
0.984687
0.104144
-0.199682
-1.016013
0.037270
-1.290396
0.515090
-0.815389
-1.455096
-0.278525
-0.470523
0.207199
0.230846
0.574467
-0.727539
-0.296263
0.553840
-0.827515
-0.976628
2.652613
-0.722520
-1.521114
-1.330848
-2.003869
-3.270948
-0.799409
3.768570
0.027557
-0.246280
-0.335381
0.071472
-1.968886
0.697069
-2.356614
-1.340950
1.529428
-2.224215
0.953214
0.888452
-0.112069
-0.985740
0.597865
0.341258
1.440341
1.033853
-0.572686
-0.487404
0.717153
0.394026
-0.188065
-0.069030
-0.333590
-0.046925
0.819661
-0.751467
-0.353876
0.822507
-0.625404
0.175603
-0.765109
-0.661781
0.810599
0.419728
-0.030531
1.248074
-0.039647
0.251400
-0.403400
-0.809266
0.668352
0.891909
0.204133
-0.256227
-0.522807
0.353668
-0.364906
0.212389
0.596781
-0.595822
0.307456
0.256346
0.371696
0.311020
0.797173
-0.213929
0.707198
-0.089849
0.043224
-0.157616
-0.052805
0.104173
0.426094
0.413461
-0.486720
0.868491
0.332392
0.543365
-1.037387
-0.333906
0.010572
-0.985635
-0.409699
-0.608502
-1.003846
0.294448
0.139005
0.079284
1.069989
-0.417206
0.023186
0.086228
-0.717922
-1.092567
1.046164
-0.551169
-0.599461
-0.191948
-0.654441
-0.528370
-0.086255
-0.829449
-0.476977
0.850527
0.304928
-0.093337
-0.268536
0.234005
0.473763
1.036737
-0.144783
0.903384
0.226838
0.451436
-0.422646
-0.781621
-0.368019
-0.793867
-0.715515
0.305939
-0.245651
0.472487
0.412201
-0.875732
-0.613332
-0.395999
-0.036471
0.624147
-0.032700
0.196261
-0.468109
-0.562925
0.003996
0.217823
-0.652511
0.002575
0.229047
0.011886
-0.641207
-0.854305
-0.727096
-0.183898
-0.176637
-0.968073
-0.442923
-0.931424
-0.375517
-0.556600
0.653293
-0.679843
-0.720977
-0.395738
-0.815051
1.270201
0.633196
0.020984
0.695146
-0.082463
-1.120440
-0.377274
-0.881210
-0.514553
-0.646949
0.502116
0.946889
0.783841
0.274139
0.157087
0.391828
0.889493
-0.209922
-0.403713
-0.110809
-0.666618
-0.633310
0.688981
0.297693
-0.742530
-0.908128
0.365381
0.524284
0.480216
-0.254388
-0.634205
-1.591043
0.284348
-0.729099
0.584794
-0.137450
-0.890931
-1.477963
0.114150
-0.396640
0.618859
-0.890605
-1.274797
0.654450
0.851457
0.352391
0.617964
-1.115805
0.284301
0.671632
0.877932
0.590380
0.644679
-0.867740
-0.635520
-0.304015
0.681521
0.456549
0.435726
0.069028
0.477733
-0.877418
-0.392900
0.154408
0.404506
0.104188
0.229099
-0.768961
0.865775
-0.366410
-0.460179
-0.519965
-0.847030
0.399442
-0.631214
-1.048287
-0.549762
-0.656409
-0.214422
0.649232
0.695953
-0.425973
-0.941120
-0.084562
0.825589
1.121867
1.174029
2.552520
1.078020
-1.257731
-0.902287
-1.722807
-2.177010
-1.646201
3.565465
0.452317
-1.456843
-0.730029
-0.478016
-1.381697
1.093428
-1.293489
-1.141728
1.251928
-0.747991
-0.823285
0.866142
-0.172632
-0.090467
0.179432
-0.703609
0.621989
-0.795553
0.307710
-0.970938
0.914366
-0.474379
-0.131612
-0.730139
-0.290929
-0.637930
-0.250486
-0.889131
0.449125
0.301508
-0.103355
-0.439758
-0.707217
-0.604668
0.349265
0.754878
-0.425879
-1.088359
0.959247
0.055761
-0.387348
-0.133792
0.150410
0.869442
0.474429
1.278845
-0.182796
0.995369
1.080197
-0.315299
0.278638
-0.013704
-0.994946
0.367446
0.538787
0.672498
-0.431218
0.384416
-0.010268
-0.023336
-0.485782
0.747022
-0.692847
-0.484652
0.846013
0.481028
-0.087154
0.300751
-0.610971
0.434564
0.601787
0.776708
-1.562251
0.196113
0.320102
1.444184
0.895570
0.970811
0.796071
-0.552458
0.059413
-0.412588
0.168159
-0.340384
0.318812
0.244019
-0.979228
-0.636935
-0.162699
0.642893
0.447853
-0.556448
-0.405874
-0.068694
-0.383083
0.253314
0.520364
0.572553
0.677592
-0.190240
-0.505504
1.345058
-0.359106
0.545447
1.409154
0.306620
0.487013
1.167812
0.736634
0.907652
-0.104369
-1.088801
0.117942
0.882926
-0.769177
0.783138
-0.344090
-0.345050
-0.007030
-0.348731
0.183287
-0.293220
0.257591
-0.068392
-1.103927
1.256445
0.386618
0.313463
0.284945
-0.412592
0.924654
-0.681205
-0.216350
0.086582
-0.399389
-0.327223
0.552182
0.141200
0.098506
-0.920238
0.779220
-0.505065
0.423821
0.347474
0.410328
-0.228332
0.308636
0.684145
0.337609
0.307357
-0.677041
-0.435897
0.054589
-0.845560
0.710313
-0.592425
0.283076
-0.358564
0.237207
-0.855295
-0.096470
0.666709
0.245936
-0.785939
0.658036
-0.677022
0.297295
-0.872689
-0.004111
-0.771280
0.134226
0.822465
0.233419
0.443542
-0.966896
-0.989157
0.159585
0.005953
-0.493031
0.551000
0.778136
-0.802959
-0.004982
-0.561496
0.063834
0.586785
0.916090
-0.744896
-0.349741
1.123335
-1.334558
-0.484823
-0.775201
-0.350383
0.032783
-0.850536
0.695846
0.025656
0.994275
-0.801157
-0.835038
0.917967
-0.145260
-0.846350
-0.378985
-0.532656
0.176573
-0.204473
-0.233382
0.676794
0.736454
-0.240908
0.533283
1.170757
0.538280
1.155784
0.479750
-0.910229
0.344072
-0.244620
0.616178
0.674327
-0.040684
-0.912109
-0.246289
-0.481980
-0.393202
0.230562
0.685267
-0.244957
0.903563
0.994288
1.488500
0.346803
-0.826369
-0.076369
-0.948194
-2.445126
-1.247228
3.499094
0.541355
0.361759
-0.551649
-0.293658
-2.030703
1.504461
-2.680670
0.040169
2.146194
-2.064231
1.451169
-0.663282
-0.328172
0.036558
-0.779412
-0.589325
0.500855
0.502733
-0.303651
0.562136
0.430193
-0.735946
0.624496
-0.278234
0.343420
0.281761
-0.069274
-0.907633
-0.513848
0.669144
-0.751517
0.491902
-0.905533
-0.414745
0.940500
-0.797413
0.202263
-0.486496
-0.634306
0.535399
0.298217
-0.083485
0.108457
0.206328
-0.300815
-0.625337
-0.396022
0.692572
-0.664943
0.534052
-0.035970
-0.509847
0.269986
-0.712277
0.827551
0.395126
-0.497048
0.411809
0.719310
0.687738
-0.899876
-1.169163
-0.631902
-0.660085
-1.173631
0.903529
-0.158321
-0.684614
-0.491629
-1.266011
0.689966
0.828119
0.753756
-0.471219
0.079307
-0.992986
-0.811376
0.941807
0.919496
0.344259
-0.668148
0.554055
0.983803
-0.225429
-0.982104
-0.109305
0.850347
0.213513
0.454080
-0.309841
0.641948
-0.403127
0.384218
-0.117574
-0.142030
-0.578792
0.516659
1.064952
0.273546
-0.710681
-0.283972
-0.729551
0.506460
-0.437702
0.502628
-0.899390
0.092652
0.151178
0.288061
1.103698
0.081030
-0.485127
-0.216843
0.422790
-0.016846
0.055101
0.183945
0.517245
-0.729912
0.566180
-0.808305
-0.118899
-0.207103
0.386786
0.655009
0.502502
-0.737259
1.063803
0.102148
-0.825801
-0.580689
-0.586051
-0.342215
0.088958
-0.354646
0.611310
0.816570
-0.584192
-0.372916
-0.427188
-0.217269
-0.416151
1.094839
0.525026
0.975408
0.849793
0.099084
-0.133414
-1.031476
-0.854064
1.098945
-0.583688
0.631992
0.992194
0.769454
0.307027
-0.593461
1.035201
-0.752995
0.524579
-0.912413
1.042991
-0.479139
-0.600846
-0.148088
-0.893633
0.527550
-0.488587
0.198447
-0.506167
0.688043
0.650313
0.420026
0.209900
-0.498084
-0.088158
-0.584417
-0.398886
0.055658
-0.853992
0.114540
-0.806730
0.887249
0.490122
0.585447
-0.486837
0.950607
-0.017244
-0.793149
-0.328287
-0.378848
0.729663
0.398346
-0.357945
0.059713
-0.705498
0.608567
-0.245431
-0.137698
-1.164630
0.883283
-0.189015
0.665953
0.250509
0.206380
-0.477002
0.890616
0.659812
-0.125240
0.153959
-0.201715
0.584675
0.627399
-0.907526
-0.519556
-0.149350
0.464793
0.414520
1.283958
-0.071394
-0.873198
-0.423262
-0.286321
0.131108
0.810977
0.151009
0.967716
0.086362
-0.161570
-0.578170
-1.027192
0.429952
2.020393
0.594891
0.184334
-1.240602
-1.084313
-2.145488
0.052759
4.303140
0.982085
-0.852453
-0.136861
0.055046
-0.359270
1.682851
-2.156512
-0.691522
1.178785
-1.186482
0.840393
0.546170
-0.705662
-0.009161
-0.407557
0.390025
-0.311464
0.202577
0.201365
-0.863184
0.333301
-0.705841
0.422086
-0.808914
0.170346
-0.608948
0.721294
0.212410
-0.881875
0.150349
0.604249
-0.922142
0.224432
-0.841473
0.942433
-0.128220
0.380395
0.863672
0.831044
-1.422944
-0.052859
1.226593
-0.139058
0.781022
0.738243
0.521842
1.394702
-0.931629
0.161739
0.224135
1.719493
-1.081050
-0.899763
-0.068744
0.002128
-0.138438
-0.428278
-0.490758
1.120583
-0.682447
0.188023
0.564865
-0.336220
-0.629531
-0.184298
0.397926
0.795586
1.209306
-0.780070
0.486837
-0.815265
-0.956588
0.764981
0.113334
-0.832958
-0.547412
0.504590
0.762487
-1.067718
0.017141
0.060340
1.125760
-0.546101
1.148257
0.811642
-0.947434
0.659691
0.685181
0.324173
0.931701
0.761386
-0.316212
-0.870405
-0.735194
0.580065
0.106930
0.414702
0.707448
-0.380607
-1.255537
0.515757
-0.419670
0.217118
-0.128305
-0.216070
-0.198994
0.624568
-0.719453
-1.017668
0.162919
-0.197381
-0.258917
1.300391
1.091001
1.087590
0.144742
0.136769
-0.572690
0.983683
-0.638772
-1.165628
1.296073
0.983813
1.733148
0.515079
0.952326
1.435176
-0.721758
-0.718782
-0.821055
2.511851
-1.291243
20 31
1.085705
0.659617
-0.676503
-0.499523
1.140539
0.083969
0.063791
0.332697
-0.582573
-0.343437
-0.179415
-0.916260
-0.554622
-0.521025
0.774441
-0.543256
-0.189046
0.514562
0.753380
0.354172
0.361705
-0.678282
-0.165466
-0.306648
-0.269537
-0.067382
0.456516
-0.719094
-1.090645
-0.536024
-0.818530
0.250674
0.554040
-0.990479
0.830245
0.294092
0.537666
0.985075
-0.814917
-0.111227
0.804308
-0.599498
-1.027205
0.201560
0.864982
-0.107813
-0.859212
-0.485391
0.294783
1.051647
-0.286532
0.605046
-0.113395
-0.080267
-0.487627
0.100974
-0.469731
-0.870699
-0.392953
-0.586402
-0.989281
-0.546049
-0.015401
-0.867284
0.613429
-0.482274
0.480889
-0.542522
-0.287487
-0.204713
0.809706
0.246825
-0.928542
-0.246882
-0.233825
0.960912
-0.404280
0.037895
-0.717589
-0.804344
0.275743
-0.341943
-0.868499
-0.931941
0.380794
-0.444327
0.579062
-1.114906
-0.828908
-0.842037
-0.388380
0.764817
-0.679746
0.729877
0.289980
-0.544086
1.001232
-0.328352
0.613941
-0.001330
-0.611542
0.097739
-0.315382
-0.883391
0.433654
0.194222
0.533170
0.106774
-0.922916
-0.457928
-0.474254
0.205813
0.393791
0.002340
0.384687
0.614294
0.552990
-0.886202
0.149734
0.516282
0.146858
1.037020
-0.110745
-0.603864
-0.132881
-0.520455
0.154444
-0.629078
0.501766
0.129224
-1.185730
-0.066178
-1.010079
0.054343
-0.029490
-0.138705
0.384647
0.294711
0.171464
0.591739
1.086146
-0.688177
0.028342
0.898919
0.300912
-0.587603
1.027875
0.745422
-0.608114
0.676243
0.842932
0.889432
0.841304
0.491097
0.978283
0.116638
-0.121759
0.643286
0.763146
0.424761
0.154914
0.943557
-0.825803
1.014721
-0.080637
1.006267
-0.646114
0.751277
-0.466121
-0.319760
0.198313
0.113610
-0.506853
0.262061
-0.790340
0.968236
-0.776146
-0.331354
-0.431260
-0.531872
-0.658691
0.357034
0.586876
0.167530
-0.666214
0.212330
0.916673
0.636604
0.837651
0.975178
-1.011180
-0.628406
0.553993
0.549978
-0.836901
0.996213
-0.798443
-0.446594
0.941617
-0.722847
-0.105391
0.249349
0.397490
0.165960
-0.596964
0.704621
-0.304020
-0.570667
-1.093777
-0.592317
-0.797949
0.891499
-0.280851
0.018272
0.564956
-0.943880
0.521881
1.457635
1.151952
-0.373245
-0.335633
0.211451
0.848350
0.009485
-0.420249
0.237685
-0.029727
-1.165481
-0.704309
0.833988
-0.709738
-0.698464
0.209316
-1.083508
-0.654007
1.012218
0.005965
0.002731
-0.487286
0.132804
0.067993
-0.471918
-0.312096
-0.194486
0.793928
-0.620627
0.088569
-0.566199
0.812821
-0.921725
0.176266
-0.530739
-0.873591
-0.076662
0.329028
0.530231
-0.476856
0.680317
-0.726494
0.502885
-0.805415
0.184911
-0.509623
0.083521
-0.202869
0.343140
-0.650949
1.047136
0.430821
0.778153
-1.104402
0.036045
0.020973
0.844759
-0.841957
-0.717766
0.929922
0.334764
0.326875
0.643753
0.524898
0.916392
0.325035
-1.254280
0.385049
-0.536171
0.689236
-0.739314
0.576442
0.657767
-0.768948
-0.660440
-0.039435
-0.470782
0.794592
0.928114
-0.720253
-0.867700
0.407486
0.889989
0.579831
0.366773
0.935694
0.245351
0.268202
-0.234629
-0.116980
0.076629
0.047441
0.604342
-0.752498
-0.247256
0.845613
0.169505
0.344508
-0.534782
0.091070
0.154841
-0.885670
0.648413
0.740079
-0.932510
0.126862
-0.171007
0.817424
0.159258
0.812369
-0.038531
-0.421910
-0.692380
0.914978
-0.976640
-0.070725
-0.110407
-0.252375
-0.571866
-0.547360
-0.039153
-0.692736
0.606855
0.885073
-0.256145
-1.068389
0.271513
0.224009
-0.422758
-1.125716
0.008284
-0.628656
-0.514525
0.204286
0.804853
0.046344
0.531470
-0.485584
0.505008
0.302288
-0.338427
0.484790
-0.509556
-0.537941
0.824912
-0.065407
0.936007
-0.312660
-0.949652
-0.227728
-0.202188
0.441742
0.656554
0.660726
0.939055
-0.627660
-0.955235
-0.454359
-0.127290
0.670246
-0.041141
0.121608
-0.276917
-0.049006
0.813992
0.483070
-0.276688
0.761267
0.053996
0.740988
0.672601
-0.490065
-0.361760
-0.223948
-0.552688
0.323221
-1.018501
0.251802
-0.189211
0.125418
0.175784
0.909354
-0.575395
-0.824692
-0.565913
0.857291
-0.508250
-0.002995
0.554445
-1.121616
0.106585
0.271188
-0.889654
0.121650
0.979974
-0.415008
-0.578076
0.618290
-0.971032
0.382045
0.338824
0.832753
-0.584871
-0.821736
0.471726
0.242198
-0.410210
1.051476
-0.626716
-0.177234
-0.825767
-0.472558
-0.573700
1.031296
-0.572599
-0.014144
-0.517097
0.669326
-0.917281
-0.241713
0.667060
0.636132
-0.338815
-0.292004
0.845614
-0.985218
0.852400
0.550431
-0.677112
0.668279
0.923028
0.510258
-0.679757
-0.913449
-0.411256
-0.299630
-0.490298
0.745139
-0.844856
-0.273508
0.303645
-0.393847
-0.123769
-0.355383
-0.425337
-0.125838
0.830116
-0.837538
0.404212
0.776785
-0.205369
-0.624380
-1.180042
-0.396558
-0.684699
-0.596599
-0.939149
-0.473566
0.887576
0.861607
0.686913
0.364349
-0.316401
0.055483
1.003276
0.401868
0.763741
-0.560626
-0.753452
0.160154
-0.270494
0.760371
0.711789
0.758400
-0.714139
-0.336898
0.289246
-0.843458
-0.831424
0.622335
0.217256
-1.063872
-0.446259
0.327823
-0.882913
0.920887
-0.442996
-0.188494
0.804668
0.786935
-0.773304
-0.218081
0.829025
0.481305
0.475730
-0.814391
0.654512
-0.281702
-0.755916
0.005526
0.961811
0.365816
-0.350574
-0.078536
0.722604
-0.365436
0.653345
-0.056479
0.980893
0.752318
-1.179487
-0.853305
0.138458
-0.435907
-0.814206
-0.366514
0.799183
0.505884
-0.458746
0.507656
-0.431629
-0.876157
0.089101
-0.578390
-0.852723
-0.839529
-0.882484
0.210382
0.339741
-0.886478
0.384070
0.130646
0.653048
-0.156250
1.035587
-0.058160
-0.556632
0.532123
-0.123769
-0.157554
-0.601184
0.394172
0.579243
-0.145093
0.448465
0.139562
0.111702
0.885758
0.624795
0.045704
-0.732957
-0.069188
-0.694229
0.374906
0.116862
0.367421
-0.157972
-0.710654
0.633794
-0.495783
0.388591
-0.009524
0.675691
-0.942429
0.820345
-0.612381
-0.006289
-0.445713
0.402898
-0.777905
-0.622256
1.005438
0.686559
0.877247
-0.821861
0.136140
0.938303
0.858963
0.236848
-0.531213
-0.073411
0.501524
-0.990822
0.662740
-0.008268
-0.571563
0.642541
-1.070631
-0.420841
-0.783733
-0.807420
0.647759
0.871643
-0.129055
-0.823013
-0.044254
-0.789429
0.416238
-0.684219
0.600319
0.950306
-0.700996
-0.143083
1 20
1.955891
0.837176
-1.154650
0.524116
-1.745079
-2.415908
0.382093
3.154895
-0.698816
0.302950
-0.220737
0.723311
0.022771
1.486948
-0.707081
-0.942141
0.400882
-1.771753
3.595745
0.087238
1 31
0.030783
0.045295
-0.029326
-0.002675
0.014019
0.023414
0.011513
0.003319
0.018300
-0.008772
-0.033450
-0.013649
-0.012836
0.002735
0.014367
0.002169
-0.036902
0.014496
0.026052
0.011231
-0.006593
0.031071
-0.019291
-0.001641
-0.019415
-0.002373
-0.010080
0.015626
-0.038289
-0.017991
-0.011109
